digraph Tree {
node [shape=box, style="filled, rounded", color="black", fontname=helvetica] ;
edge [fontname=helvetica] ;
0 [label="petal length (cm) <= 2.45\ngini = 0.66\nsamples = 95\nvalue = [52, 58, 40]\nclass = versicolor", fillcolor="#f3fdf7"] ;
1 [label="gini = 0.0\nsamples = 32\nvalue = [52, 0, 0]\nclass = setosa", fillcolor="#e58139"] ;
0 -> 1 [labeldistance=2.5, labelangle=45, headlabel="True"] ;
2 [label="petal width (cm) <= 1.75\ngini = 0.48\nsamples = 63\nvalue = [0, 58, 40]\nclass = versicolor", fillcolor="#c2f7d8"] ;
0 -> 2 [labeldistance=2.5, labelangle=-45, headlabel="False"] ;
3 [label="petal width (cm) <= 1.35\ngini = 0.2\nsamples = 38\nvalue = [0, 56, 7]\nclass = versicolor", fillcolor="#52e891"] ;
2 -> 3 ;
4 [label="gini = 0.0\nsamples = 23\nvalue = [0, 36, 0]\nclass = versicolor", fillcolor="#39e581"] ;
3 -> 4 ;
5 [label="sepal length (cm) <= 6.15\ngini = 0.38\nsamples = 15\nvalue = [0, 20, 7]\nclass = versicolor", fillcolor="#7eeead"] ;
3 -> 5 ;
6 [label="sepal length (cm) <= 5.05\ngini = 0.5\nsamples = 8\nvalue = [0, 5, 5]\nclass = versicolor", fillcolor="#ffffff"] ;
5 -> 6 ;
7 [label="gini = 0.0\nsamples = 1\nvalue = [0, 0, 1]\nclass = virginica", fillcolor="#8139e5"] ;
6 -> 7 ;
8 [label="sepal length (cm) <= 5.95\ngini = 0.49\nsamples = 7\nvalue = [0, 5, 4]\nclass = versicolor", fillcolor="#d7fae6"] ;
6 -> 8 ;
9 [label="gini = 0.0\nsamples = 2\nvalue = [0, 2, 0]\nclass = versicolor", fillcolor="#39e581"] ;
8 -> 9 ;
10 [label="petal length (cm) <= 4.85\ngini = 0.49\nsamples = 5\nvalue = [0, 3, 4]\nclass = virginica", fillcolor="#e0cef8"] ;
8 -> 10 ;
11 [label="gini = 0.0\nsamples = 3\nvalue = [0, 3, 0]\nclass = versicolor", fillcolor="#39e581"] ;
10 -> 11 ;
12 [label="gini = 0.0\nsamples = 2\nvalue = [0, 0, 4]\nclass = virginica", fillcolor="#8139e5"] ;
10 -> 12 ;
13 [label="petal length (cm) <= 5.05\ngini = 0.21\nsamples = 7\nvalue = [0, 15, 2]\nclass = versicolor", fillcolor="#53e892"] ;
5 -> 13 ;
14 [label="gini = 0.0\nsamples = 5\nvalue = [0, 15, 0]\nclass = versicolor", fillcolor="#39e581"] ;
13 -> 14 ;
15 [label="gini = 0.0\nsamples = 2\nvalue = [0, 0, 2]\nclass = virginica", fillcolor="#8139e5"] ;
13 -> 15 ;
16 [label="petal length (cm) <= 4.85\ngini = 0.11\nsamples = 25\nvalue = [0, 2, 33]\nclass = virginica", fillcolor="#8945e7"] ;
2 -> 16 ;
17 [label="sepal width (cm) <= 3.1\ngini = 0.5\nsamples = 2\nvalue = [0, 2, 2]\nclass = versicolor", fillcolor="#ffffff"] ;
16 -> 17 ;
18 [label="gini = 0.0\nsamples = 1\nvalue = [0, 0, 2]\nclass = virginica", fillcolor="#8139e5"] ;
17 -> 18 ;
19 [label="gini = 0.0\nsamples = 1\nvalue = [0, 2, 0]\nclass = versicolor", fillcolor="#39e581"] ;
17 -> 19 ;
20 [label="gini = 0.0\nsamples = 23\nvalue = [0, 0, 31]\nclass = virginica", fillcolor="#8139e5"] ;
16 -> 20 ;
}